<?xml version="1.0"?>
<MethodSetup Method="MLP::MLP">
  <GeneralInfo>
    <Info name="TMVA Release" value="4.2.1 [262657]"/>
    <Info name="ROOT Release" value="6.18/04 [397828]"/>
    <Info name="Creator" value="murat"/>
    <Info name="Date" value="Wed Jan 20 10:27:16 2021"/>
    <Info name="Host" value="Linux buildservice007.fnal.gov 3.10.0-1062.9.1.el7.x86_64 #1 SMP Thu Dec 5 14:44:59 CST 2019 x86_64 x86_64 x86_64 GNU/Linux"/>
    <Info name="Dir" value="/mu2e/app/users/murat/su2020_prof"/>
    <Info name="Training events" value="20000"/>
    <Info name="TrainingTime" value="5.89693060e+01"/>
    <Info name="AnalysisType" value="Classification"/>
  </GeneralInfo>
  <Options>
    <Option name="NCycles" modified="No">500</Option>
    <Option name="HiddenLayers" modified="No">N,N-1</Option>
    <Option name="NeuronType" modified="No">sigmoid</Option>
    <Option name="RandomSeed" modified="No">1</Option>
    <Option name="EstimatorType" modified="No">CE</Option>
    <Option name="NeuronInputType" modified="No">sum</Option>
    <Option name="V" modified="Yes">False</Option>
    <Option name="VerbosityLevel" modified="No">Default</Option>
    <Option name="VarTransform" modified="Yes">N</Option>
    <Option name="H" modified="Yes">False</Option>
    <Option name="CreateMVAPdfs" modified="No">False</Option>
    <Option name="IgnoreNegWeightsInTraining" modified="No">False</Option>
    <Option name="TrainingMethod" modified="No">BP</Option>
    <Option name="LearningRate" modified="No">2.000000e-02</Option>
    <Option name="DecayRate" modified="No">1.000000e-02</Option>
    <Option name="TestRate" modified="No">10</Option>
    <Option name="EpochMonitoring" modified="No">False</Option>
    <Option name="Sampling" modified="No">1.000000e+00</Option>
    <Option name="SamplingEpoch" modified="No">1.000000e+00</Option>
    <Option name="SamplingImportance" modified="No">1.000000e+00</Option>
    <Option name="SamplingTraining" modified="No">True</Option>
    <Option name="SamplingTesting" modified="No">False</Option>
    <Option name="ResetStep" modified="No">50</Option>
    <Option name="Tau" modified="No">3.000000e+00</Option>
    <Option name="BPMode" modified="No">sequential</Option>
    <Option name="BatchSize" modified="No">-1</Option>
    <Option name="ConvergenceImprove" modified="No">1.000000e-30</Option>
    <Option name="ConvergenceTests" modified="No">-1</Option>
    <Option name="UseRegulator" modified="No">False</Option>
    <Option name="UpdateLimit" modified="No">10000</Option>
    <Option name="CalculateErrors" modified="No">False</Option>
    <Option name="WeightRange" modified="No">1.000000e+00</Option>
  </Options>
  <Variables NVar="7">
    <Variable VarIndex="0" Expression="ecl/p" Label="ecl/p" Title="e/p" Unit="Fraction" Internal="ecl_D_p" Type="F" Min="9.81177166e-02" Max="1.00690460e+00"/>
    <Variable VarIndex="1" Expression="ncr" Label="ncr" Title="ncr" Unit="1" Internal="ncr" Type="F" Min="1.00000000e+00" Max="1.60000000e+01"/>
    <Variable VarIndex="2" Expression="seedfr" Label="seedfr" Title="seed_fr" Unit="Fraction" Internal="seedfr" Type="F" Min="1.63658604e-01" Max="9.99999881e-01"/>
    <Variable VarIndex="3" Expression="ele_dt" Label="ele_dt" Title="ele_dt" Unit="nsec" Internal="ele_dt" Type="F" Min="-6.21801710e+00" Max="5.18873358e+00"/>
    <Variable VarIndex="4" Expression="ele_dz" Label="ele_dz" Title="ele_dz" Unit="mm" Internal="ele_dz" Type="F" Min="-4.67315063e+02" Max="7.35317017e+02"/>
    <Variable VarIndex="5" Expression="ele_dr" Label="ele_dr" Title="ele_dr" Unit="mm" Internal="ele_dr" Type="F" Min="-1.65274551e+02" Max="6.84179688e+02"/>
    <Variable VarIndex="6" Expression="ele_path" Label="ele_path" Title="ele_path" Unit="mm" Internal="ele_path" Type="F" Min="-1.86875000e+01" Max="4.21937500e+02"/>
  </Variables>
  <Spectators NSpec="0"/>
  <Classes NClass="2">
    <Class Name="Signal" Index="0"/>
    <Class Name="Background" Index="1"/>
  </Classes>
  <Transformations NTransformations="1">
    <Transform Name="Normalize">
      <Selection>
        <Input NInputs="7">
          <Input Type="Variable" Label="ecl/p" Expression="ecl/p"/>
          <Input Type="Variable" Label="ncr" Expression="ncr"/>
          <Input Type="Variable" Label="seedfr" Expression="seedfr"/>
          <Input Type="Variable" Label="ele_dt" Expression="ele_dt"/>
          <Input Type="Variable" Label="ele_dz" Expression="ele_dz"/>
          <Input Type="Variable" Label="ele_dr" Expression="ele_dr"/>
          <Input Type="Variable" Label="ele_path" Expression="ele_path"/>
        </Input>
        <Output NOutputs="7">
          <Output Type="Variable" Label="ecl/p" Expression="ecl/p"/>
          <Output Type="Variable" Label="ncr" Expression="ncr"/>
          <Output Type="Variable" Label="seedfr" Expression="seedfr"/>
          <Output Type="Variable" Label="ele_dt" Expression="ele_dt"/>
          <Output Type="Variable" Label="ele_dz" Expression="ele_dz"/>
          <Output Type="Variable" Label="ele_dr" Expression="ele_dr"/>
          <Output Type="Variable" Label="ele_path" Expression="ele_path"/>
        </Output>
      </Selection>
      <Class ClassIndex="0">
        <Ranges>
          <Range Index="0" Min="1.0056133568286896e-01" Max="1.0069046020507812e+00"/>
          <Range Index="1" Min="1.0000000000000000e+00" Max="1.6000000000000000e+01"/>
          <Range Index="2" Min="1.6365860402584076e-01" Max="9.9999988079071045e-01"/>
          <Range Index="3" Min="-6.2180171012878418e+00" Max="5.1887335777282715e+00"/>
          <Range Index="4" Min="-4.6731506347656250e+02" Max="7.3531701660156250e+02"/>
          <Range Index="5" Min="-1.6527455139160156e+02" Max="6.8417968750000000e+02"/>
          <Range Index="6" Min="1.9375000000000000e+00" Max="4.2193750000000000e+02"/>
        </Ranges>
      </Class>
      <Class ClassIndex="1">
        <Ranges>
          <Range Index="0" Min="9.8117716610431671e-02" Max="8.7407082319259644e-01"/>
          <Range Index="1" Min="1.0000000000000000e+00" Max="8.0000000000000000e+00"/>
          <Range Index="2" Min="3.2096084952354431e-01" Max="9.9999982118606567e-01"/>
          <Range Index="3" Min="-3.3584568500518799e+00" Max="1.0117918252944946e-01"/>
          <Range Index="4" Min="-2.4525634765625000e+02" Max="6.3287829589843750e+02"/>
          <Range Index="5" Min="-7.2837631225585938e+01" Max="1.1590180206298828e+02"/>
          <Range Index="6" Min="-1.8687500000000000e+01" Max="4.1193750000000000e+02"/>
        </Ranges>
      </Class>
      <Class ClassIndex="2">
        <Ranges>
          <Range Index="0" Min="9.8117716610431671e-02" Max="1.0069046020507812e+00"/>
          <Range Index="1" Min="1.0000000000000000e+00" Max="1.6000000000000000e+01"/>
          <Range Index="2" Min="1.6365860402584076e-01" Max="9.9999988079071045e-01"/>
          <Range Index="3" Min="-6.2180171012878418e+00" Max="5.1887335777282715e+00"/>
          <Range Index="4" Min="-4.6731506347656250e+02" Max="7.3531701660156250e+02"/>
          <Range Index="5" Min="-1.6527455139160156e+02" Max="6.8417968750000000e+02"/>
          <Range Index="6" Min="-1.8687500000000000e+01" Max="4.2193750000000000e+02"/>
        </Ranges>
      </Class>
    </Transform>
  </Transformations>
  <MVAPdfs/>
  <Weights>
    <Layout NLayers="4">
      <Layer Index="0" NNeurons="8">
        <Neuron NSynapses="7">
          3.3204352489151052e+00 1.3707715877427898e-01 -7.8602131933479757e-02 2.1396542955320244e+00 -9.7854216475256681e+00 -1.9432604390336699e+00 9.6241575602227236e-01 
        </Neuron>
        <Neuron NSynapses="7">
          2.4937607793676136e-01 -1.9485695066964241e+00 -9.9906888432871299e-01 -1.5161288819890109e+00 1.3796254951276978e+00 -6.7218925662844020e-01 -2.8625349592927978e+00 
        </Neuron>
        <Neuron NSynapses="7">
          3.6547396802696591e-01 1.5086357573626630e+00 -1.3606485387941689e-01 1.6418825572024160e+00 2.8149459814654863e-02 5.0805323719333595e-01 -4.6628964693571451e-01 
        </Neuron>
        <Neuron NSynapses="7">
          -1.4990207483730400e+00 1.3050963560598949e+00 5.4197087388584064e+00 -2.0238369968211702e+00 -3.9358259149195014e+00 -1.5122866232068288e+00 -1.0698246925070389e+01 
        </Neuron>
        <Neuron NSynapses="7">
          -1.4455771681067009e+00 2.7619070336587359e-01 -3.5180016320679924e-01 4.9506071544070451e-01 8.3664655772798235e-01 -1.7169613083071529e+00 5.6025113497180152e+00 
        </Neuron>
        <Neuron NSynapses="7">
          5.0696540601171194e-03 -1.0231477150910429e+00 1.1474514260795499e+00 -1.3336458893131184e+00 3.1040249404928999e+00 -8.6029300506086329e-02 -1.3414866038448749e+00 
        </Neuron>
        <Neuron NSynapses="7">
          2.9186778546354413e+00 4.8703612494823290e-01 -5.3029775868730777e-01 -2.0050298560644402e+00 1.0228672720177863e-01 -3.7959568693246450e+00 6.4220275314289432e-01 
        </Neuron>
        <Neuron NSynapses="7">
          1.8664705016512240e+00 1.6342343319421333e+00 1.4767301732998788e+00 -1.3795319218724784e+00 1.7049770751178808e+00 3.4577169600977051e-02 -1.0749656709922275e+00 
        </Neuron>
      </Layer>
      <Layer Index="1" NNeurons="8">
        <Neuron NSynapses="6">
          -9.0762272720288265e-02 -2.3612769792287258e+00 1.2459612428437312e+00 6.5756987495152419e-01 -2.6802109069663391e+00 -3.9623238741460509e-01 
        </Neuron>
        <Neuron NSynapses="6">
          -1.9088415251320074e+00 3.0415721933703437e+00 1.6104235882207807e+00 -4.0367592876818975e-01 1.0996939274046464e+00 3.6951020922284025e-03 
        </Neuron>
        <Neuron NSynapses="6">
          -1.9248475185095120e+00 2.6307059057879152e+00 -7.9252284885659396e-01 -1.5647785459707428e+00 2.6502966149201224e+00 3.9056722846757586e+00 
        </Neuron>
        <Neuron NSynapses="6">
          1.8818070990012070e-01 -1.7156561616864994e+00 -2.0644346257397315e+00 -1.8523803672223733e+00 -1.0739646730234492e-01 -1.4870128805534577e+00 
        </Neuron>
        <Neuron NSynapses="6">
          5.4472226729515771e+00 -9.5853114115264360e-01 8.3404312922713508e-01 -6.6496739085679146e-01 -1.6495458461968124e+00 -1.9954310147550918e+00 
        </Neuron>
        <Neuron NSynapses="6">
          6.4910289140487321e-01 -2.1290806733102836e+00 -1.6803481249590870e+00 -1.5799939272443320e+00 -9.7615850442575791e-01 -1.0355826271951607e+00 
        </Neuron>
        <Neuron NSynapses="6">
          4.4899761899180257e+00 -4.7649191883537254e+00 -9.8632789664604803e-01 1.7336363137522108e+00 -2.2483007518812101e+00 -4.4280698725040741e+00 
        </Neuron>
        <Neuron NSynapses="6">
          -3.1070186473764276e+00 2.7999673986713285e+00 -2.1460503312955161e+00 -1.7051156780045449e+00 2.0658889957691384e+00 3.4315152489421514e+00 
        </Neuron>
      </Layer>
      <Layer Index="2" NNeurons="7">
        <Neuron NSynapses="1">
          -8.6071333276540951e+00 
        </Neuron>
        <Neuron NSynapses="1">
          6.8138970329444888e+00 
        </Neuron>
        <Neuron NSynapses="1">
          3.4660345562131711e-01 
        </Neuron>
        <Neuron NSynapses="1">
          -7.8676479817674971e-01 
        </Neuron>
        <Neuron NSynapses="1">
          4.3673806830903787e+00 
        </Neuron>
        <Neuron NSynapses="1">
          6.1018932920046325e+00 
        </Neuron>
        <Neuron NSynapses="1">
          -2.1839450567843799e+00 
        </Neuron>
      </Layer>
      <Layer Index="3" NNeurons="1">
        <Neuron NSynapses="0"/>
      </Layer>
    </Layout>
  </Weights>
</MethodSetup>
