<?xml version="1.0"?>
<MethodSetup Method="MLP::MLP">
  <GeneralInfo>
    <Info name="TMVA Release" value="4.2.1 [262657]"/>
    <Info name="ROOT Release" value="6.18/04 [397828]"/>
    <Info name="Creator" value="murat"/>
    <Info name="Date" value="Wed Dec 23 16:16:28 2020"/>
    <Info name="Host" value="Linux buildservice007.fnal.gov 3.10.0-1062.9.1.el7.x86_64 #1 SMP Thu Dec 5 14:44:59 CST 2019 x86_64 x86_64 x86_64 GNU/Linux"/>
    <Info name="Dir" value="/mu2e/app/users/murat/su2020_prof"/>
    <Info name="Training events" value="70000"/>
    <Info name="TrainingTime" value="2.51402614e+02"/>
    <Info name="AnalysisType" value="Classification"/>
  </GeneralInfo>
  <Options>
    <Option name="NCycles" modified="No">500</Option>
    <Option name="HiddenLayers" modified="No">N,N-1</Option>
    <Option name="NeuronType" modified="No">sigmoid</Option>
    <Option name="RandomSeed" modified="No">1</Option>
    <Option name="EstimatorType" modified="No">CE</Option>
    <Option name="NeuronInputType" modified="No">sum</Option>
    <Option name="V" modified="Yes">False</Option>
    <Option name="VerbosityLevel" modified="No">Default</Option>
    <Option name="VarTransform" modified="Yes">N</Option>
    <Option name="H" modified="Yes">False</Option>
    <Option name="CreateMVAPdfs" modified="No">False</Option>
    <Option name="IgnoreNegWeightsInTraining" modified="No">False</Option>
    <Option name="TrainingMethod" modified="No">BP</Option>
    <Option name="LearningRate" modified="No">2.000000e-02</Option>
    <Option name="DecayRate" modified="No">1.000000e-02</Option>
    <Option name="TestRate" modified="No">10</Option>
    <Option name="EpochMonitoring" modified="No">False</Option>
    <Option name="Sampling" modified="No">1.000000e+00</Option>
    <Option name="SamplingEpoch" modified="No">1.000000e+00</Option>
    <Option name="SamplingImportance" modified="No">1.000000e+00</Option>
    <Option name="SamplingTraining" modified="No">True</Option>
    <Option name="SamplingTesting" modified="No">False</Option>
    <Option name="ResetStep" modified="No">50</Option>
    <Option name="Tau" modified="No">3.000000e+00</Option>
    <Option name="BPMode" modified="No">sequential</Option>
    <Option name="BatchSize" modified="No">-1</Option>
    <Option name="ConvergenceImprove" modified="No">1.000000e-30</Option>
    <Option name="ConvergenceTests" modified="No">-1</Option>
    <Option name="UseRegulator" modified="No">False</Option>
    <Option name="UpdateLimit" modified="No">10000</Option>
    <Option name="CalculateErrors" modified="No">False</Option>
    <Option name="WeightRange" modified="No">1.000000e+00</Option>
  </Options>
  <Variables NVar="8">
    <Variable VarIndex="0" Expression="nactive" Label="nactive" Title="NActive" Unit="Count" Internal="nactive" Type="F" Min="1.50000000e+01" Max="1.01000000e+02"/>
    <Variable VarIndex="1" Expression="nafract" Label="nafract" Title="FActive" Unit="Fraction" Internal="nafract" Type="F" Min="4.59459454e-01" Max="1.00000000e+00"/>
    <Variable VarIndex="2" Expression="log10(fcons)" Label="log10(fcons)" Title="LogFitCon" Unit="Probability" Internal="log10_fcons_" Type="F" Min="-4.48534698e+01" Max="0.00000000e+00"/>
    <Variable VarIndex="3" Expression="momerr" Label="momerr" Title="FitMomErr" Unit="MeV/c" Internal="momerr" Type="F" Min="5.86896688e-02" Max="3.48700237e+00"/>
    <Variable VarIndex="4" Expression="t0err" Label="t0err" Title="T0Err" Unit="nsec" Internal="t0err" Type="F" Min="0.00000000e+00" Max="4.99648094e+00"/>
    <Variable VarIndex="5" Expression="nda_o_na" Label="nda_o_na" Title="DoubleHitFraction" Unit="Fraction" Internal="nda_o_na" Type="F" Min="5.26315793e-02" Max="5.00000000e-01"/>
    <Variable VarIndex="6" Expression="nza_o_na" Label="nza_o_na" Title="NullHitFraction" Unit="Fraction" Internal="nza_o_na" Type="F" Min="0.00000000e+00" Max="9.78723407e-01"/>
    <Variable VarIndex="7" Expression="nma_o_nm" Label="nma_o_nm" Title="MatFraction" Unit="Fraction" Internal="nma_o_nm" Type="F" Min="2.02380955e-01" Max="1.00000000e+00"/>
  </Variables>
  <Spectators NSpec="0"/>
  <Classes NClass="2">
    <Class Name="Signal" Index="0"/>
    <Class Name="Background" Index="1"/>
  </Classes>
  <Transformations NTransformations="1">
    <Transform Name="Normalize">
      <Selection>
        <Input NInputs="8">
          <Input Type="Variable" Label="nactive" Expression="nactive"/>
          <Input Type="Variable" Label="nafract" Expression="nafract"/>
          <Input Type="Variable" Label="log10(fcons)" Expression="log10(fcons)"/>
          <Input Type="Variable" Label="momerr" Expression="momerr"/>
          <Input Type="Variable" Label="t0err" Expression="t0err"/>
          <Input Type="Variable" Label="nda_o_na" Expression="nda_o_na"/>
          <Input Type="Variable" Label="nza_o_na" Expression="nza_o_na"/>
          <Input Type="Variable" Label="nma_o_nm" Expression="nma_o_nm"/>
        </Input>
        <Output NOutputs="8">
          <Output Type="Variable" Label="nactive" Expression="nactive"/>
          <Output Type="Variable" Label="nafract" Expression="nafract"/>
          <Output Type="Variable" Label="log10(fcons)" Expression="log10(fcons)"/>
          <Output Type="Variable" Label="momerr" Expression="momerr"/>
          <Output Type="Variable" Label="t0err" Expression="t0err"/>
          <Output Type="Variable" Label="nda_o_na" Expression="nda_o_na"/>
          <Output Type="Variable" Label="nza_o_na" Expression="nza_o_na"/>
          <Output Type="Variable" Label="nma_o_nm" Expression="nma_o_nm"/>
        </Output>
      </Selection>
      <Class ClassIndex="0">
        <Ranges>
          <Range Index="0" Min="1.5000000000000000e+01" Max="1.0100000000000000e+02"/>
          <Range Index="1" Min="5.9259259700775146e-01" Max="1.0000000000000000e+00"/>
          <Range Index="2" Min="-4.4853469848632812e+01" Max="0.0000000000000000e+00"/>
          <Range Index="3" Min="5.8689668774604797e-02" Max="1.3560060262680054e+00"/>
          <Range Index="4" Min="0.0000000000000000e+00" Max="4.9964809417724609e+00"/>
          <Range Index="5" Min="1.0526315867900848e-01" Max="5.0000000000000000e-01"/>
          <Range Index="6" Min="0.0000000000000000e+00" Max="9.7872340679168701e-01"/>
          <Range Index="7" Min="4.1880342364311218e-01" Max="1.0000000000000000e+00"/>
        </Ranges>
      </Class>
      <Class ClassIndex="1">
        <Ranges>
          <Range Index="0" Min="1.5000000000000000e+01" Max="8.1000000000000000e+01"/>
          <Range Index="1" Min="4.5945945382118225e-01" Max="1.0000000000000000e+00"/>
          <Range Index="2" Min="-4.4853469848632812e+01" Max="0.0000000000000000e+00"/>
          <Range Index="3" Min="7.1430325508117676e-02" Max="3.4870023727416992e+00"/>
          <Range Index="4" Min="0.0000000000000000e+00" Max="4.9651894569396973e+00"/>
          <Range Index="5" Min="5.2631579339504242e-02" Max="5.0000000000000000e-01"/>
          <Range Index="6" Min="0.0000000000000000e+00" Max="9.7142857313156128e-01"/>
          <Range Index="7" Min="2.0238095521926880e-01" Max="1.0000000000000000e+00"/>
        </Ranges>
      </Class>
      <Class ClassIndex="2">
        <Ranges>
          <Range Index="0" Min="1.5000000000000000e+01" Max="1.0100000000000000e+02"/>
          <Range Index="1" Min="4.5945945382118225e-01" Max="1.0000000000000000e+00"/>
          <Range Index="2" Min="-4.4853469848632812e+01" Max="0.0000000000000000e+00"/>
          <Range Index="3" Min="5.8689668774604797e-02" Max="3.4870023727416992e+00"/>
          <Range Index="4" Min="0.0000000000000000e+00" Max="4.9964809417724609e+00"/>
          <Range Index="5" Min="5.2631579339504242e-02" Max="5.0000000000000000e-01"/>
          <Range Index="6" Min="0.0000000000000000e+00" Max="9.7872340679168701e-01"/>
          <Range Index="7" Min="2.0238095521926880e-01" Max="1.0000000000000000e+00"/>
        </Ranges>
      </Class>
    </Transform>
  </Transformations>
  <MVAPdfs/>
  <Weights>
    <Layout NLayers="4">
      <Layer Index="0" NNeurons="9">
        <Neuron NSynapses="8">
          5.3677634578900735e-01 1.0188520712855347e+00 -2.6486083667331055e+00 4.0308740483460177e+00 -1.7632604001211849e+00 -2.8108551646982876e+00 1.0728624882091975e+00 4.4083122902886700e+00 
        </Neuron>
        <Neuron NSynapses="8">
          -8.5644164577831516e-01 2.0055848309922495e+00 -1.2486618679795072e+00 7.1011442312915152e-01 -8.4976453297606014e-01 1.6220997525262197e+00 1.2166169292585005e+00 1.1122245860316415e+00 
        </Neuron>
        <Neuron NSynapses="8">
          -1.5592997203660952e+01 7.9573147198651117e+00 -5.7675543512732341e-01 4.7322453789033228e+00 9.1687491872295090e-01 -2.0651215549112671e+00 7.8382813379792600e+00 -4.1747657151229339e-01 
        </Neuron>
        <Neuron NSynapses="8">
          1.7437620158563711e+01 -1.5089406181614676e+01 1.5984389847532981e+01 2.7535677080081777e+00 2.6544412103633363e+01 7.3202067506270154e+00 -6.9778131329230115e+00 3.8107584643315207e+00 
        </Neuron>
        <Neuron NSynapses="8">
          -3.5684774809445333e-02 4.1563158727158012e+00 6.0349244449707351e-01 1.1029299186419532e+00 6.3121590133923151e+00 4.2755808547494273e-01 -1.0442391180613802e+01 -1.1655260941634076e+00 
        </Neuron>
        <Neuron NSynapses="8">
          5.5963615905448916e-01 8.3872700461427774e-01 -1.5410886952560615e-01 8.1587368051329767e-01 1.6562003724434811e+00 -2.2391193703630918e+00 1.6881407528216248e+00 -1.2399577771742247e+00 
        </Neuron>
        <Neuron NSynapses="8">
          4.6982542210565380e-02 -2.1512665682218138e-01 -1.8470406764477484e-01 5.4208937040438754e-01 1.2211849892134695e-01 1.6762836122999958e+00 -2.0549027043467835e-01 -2.6449377562771115e-01 
        </Neuron>
        <Neuron NSynapses="8">
          -1.7260180817365973e+00 -2.9494924854056461e+00 4.4274507745023223e-01 -6.7106262945012833e+00 5.4510330942498415e-02 9.3642699686708941e-01 -2.1465896753048512e+00 5.7719041009891212e-03 
        </Neuron>
        <Neuron NSynapses="8">
          3.3252363786653326e+01 -1.6784615450745694e+01 1.4472619736135954e+01 2.2615606200744813e+00 2.8534033656722055e+01 5.3277512941730523e+00 -2.2917814274083035e+01 3.2335662138433277e+00 
        </Neuron>
      </Layer>
      <Layer Index="1" NNeurons="9">
        <Neuron NSynapses="7">
          3.3519572921026475e+00 8.2301328097412230e-01 3.2749436138808901e+00 -1.1007829770690081e+00 -8.9726553731379894e+00 -3.9353384496357293e+00 2.3011053819489229e+00 
        </Neuron>
        <Neuron NSynapses="7">
          -8.1197338252959284e-01 -2.3187378732168007e+00 -3.2243846632505364e+00 4.5934414138265769e+00 1.8366643098386026e+00 1.1786753534574019e+00 -1.4413007999875924e+00 
        </Neuron>
        <Neuron NSynapses="7">
          -1.0374829600962410e+00 -4.2181860848287247e+00 1.3951395043694351e-01 -5.6463413819083419e+00 4.7543831632892902e-01 -9.5671891200003301e-01 4.0790388528056951e+00 
        </Neuron>
        <Neuron NSynapses="7">
          8.2039232978553145e-01 -3.2622649678509350e+00 4.0041061635281023e+00 -1.2194903166580171e+00 -4.6369607895053626e+00 -1.9300253842137862e+00 2.1978524796449226e+00 
        </Neuron>
        <Neuron NSynapses="7">
          -4.8891086811048812e+00 -6.8698345462023847e+00 3.9363087358912798e+00 6.7558047331645654e-01 1.0250693404636118e+00 5.2524833341170896e-01 -2.7639067418802327e-01 
        </Neuron>
        <Neuron NSynapses="7">
          -2.8532762285335833e+00 -1.8221421441212953e+00 9.7163555913628119e-01 -2.7921963212356231e+00 -2.9845540984074987e+00 -8.6110717892973154e-01 -1.2078763397624659e+00 
        </Neuron>
        <Neuron NSynapses="7">
          -7.5388334505487897e-01 5.7641948587503773e+00 -2.6057164504666779e+00 -5.5082187128055384e+00 1.8212949577297599e+00 -8.0802917015223041e-01 -3.4572488900094029e+00 
        </Neuron>
        <Neuron NSynapses="7">
          -3.3831303267418558e+00 -3.5825097201965977e-01 2.7607778694997140e+00 1.7441787305725551e+00 -3.9167302919566410e-02 -5.2259107229481649e-01 2.1246875567945991e+00 
        </Neuron>
        <Neuron NSynapses="7">
          2.8425094223270037e-01 9.9475940879797309e-01 -1.9510448778487273e+00 -2.6520064284170237e+00 -1.3980722946501334e+00 -1.6135736859326693e+00 -4.7964934892000883e+00 
        </Neuron>
      </Layer>
      <Layer Index="2" NNeurons="8">
        <Neuron NSynapses="1">
          3.0288102126289829e+00 
        </Neuron>
        <Neuron NSynapses="1">
          4.9609140861833501e+00 
        </Neuron>
        <Neuron NSynapses="1">
          -2.3707390121144307e+00 
        </Neuron>
        <Neuron NSynapses="1">
          4.5147047501089821e+00 
        </Neuron>
        <Neuron NSynapses="1">
          4.0471191902548744e+00 
        </Neuron>
        <Neuron NSynapses="1">
          2.1865974495338492e+00 
        </Neuron>
        <Neuron NSynapses="1">
          -4.8831225610884550e+00 
        </Neuron>
        <Neuron NSynapses="1">
          1.0878138255682542e-01 
        </Neuron>
      </Layer>
      <Layer Index="3" NNeurons="1">
        <Neuron NSynapses="0"/>
      </Layer>
    </Layout>
  </Weights>
</MethodSetup>
